Language model created by QuickLM on Mon Oct 12 05:50:17 EDT 2015
Copyright (c) 1996-2010 Carnegie Mellon University and Alexander I. Rudnicky

The model is in standard ARPA format, designed by Doug Paul while he was at MITRE.

The code that was used to produce this language model is available in Open Source.
Please visit http://www.speech.cs.cmu.edu/tools/ for more information

The (fixed) discount mass is 0.5. The backoffs are computed using the ratio method.
This model based on a corpus of 48 sentences and 42 words

\data\
ngram 1=42
ngram 2=89
ngram 3=83

\1-grams:
-0.8799 </s> -0.3010
-0.8799 <s> -0.2299
-2.5611 ABORT -0.2396
-2.2601 BACK -0.2396
-2.0840 BACKWARD -0.2396
-2.2601 BENCH -0.2396
-2.5611 CANCEL -0.2396
-1.9590 COME -0.2815
-2.5611 CONTINUE -0.2986
-2.2601 DOWN -0.2396
-2.2601 DUSTBIN -0.2396
-2.5611 FASTER -0.2396
-2.0840 FORWARD -0.2396
-2.5611 FREEZE -0.2396
-2.5611 FULL -0.2962
-1.5611 GO -0.2727
-2.5611 HALF -0.2962
-2.5611 HALT -0.2396
-2.2601 HELP -0.2382
-2.2601 HOME -0.2396
-2.5611 KILL -0.2396
-1.8621 LEFT -0.2396
-2.5611 ME -0.2396
-1.8621 MOVE -0.2790
-2.5611 NOW -0.2396
-2.5611 OFF -0.2396
-2.5611 PANIC -0.2396
-2.5611 PAUSE -0.2986
-2.5611 QUARTER -0.2962
-2.2601 RESTROOM -0.2396
-1.8621 RIGHT -0.2396
-2.2601 ROTATE -0.2889
-2.5611 SHUT -0.2986
-2.5611 SLOW -0.2986
-2.5611 SLOWER -0.2396
-2.2601 SPEECH -0.2396
-1.9590 SPEED -0.2382
-2.2601 STOP -0.2382
-2.5611 STRAIGHT -0.2396
-1.9590 TO -0.2914
-2.0840 TURN -0.2877
-2.5611 UP -0.2396

\2-grams:
-1.9823 <s> ABORT 0.0000
-1.9823 <s> BENCH 0.0000
-1.9823 <s> CANCEL 0.0000
-1.3802 <s> COME 0.0000
-1.9823 <s> CONTINUE 0.0000
-1.9823 <s> DUSTBIN 0.0000
-1.9823 <s> FASTER 0.0000
-1.9823 <s> FREEZE 0.0000
-1.9823 <s> FULL 0.0000
-0.9823 <s> GO 0.0000
-1.9823 <s> HALF 0.0000
-1.9823 <s> HALT 0.0000
-1.6812 <s> HELP 0.0000
-1.9823 <s> HOME 0.0000
-1.9823 <s> KILL 0.0000
-1.2833 <s> MOVE 0.0000
-1.9823 <s> PANIC 0.0000
-1.9823 <s> PAUSE 0.0000
-1.9823 <s> QUARTER 0.0000
-1.9823 <s> RESTROOM 0.0000
-1.6812 <s> ROTATE 0.0000
-1.9823 <s> SHUT 0.0000
-1.9823 <s> SLOW 0.0000
-1.9823 <s> SLOWER 0.0000
-1.9823 <s> SPEED -0.2430
-1.6812 <s> STOP 0.0000
-1.5051 <s> TURN 0.0000
-0.3010 ABORT </s> -0.3010
-0.3010 BACK </s> -0.3010
-0.3010 BACKWARD </s> -0.3010
-0.3010 BENCH </s> -0.3010
-0.3010 CANCEL </s> -0.3010
-0.9031 COME BACKWARD 0.0000
-0.9031 COME FORWARD 0.0000
-0.9031 COME LEFT 0.0000
-0.9031 COME RIGHT 0.0000
-0.3010 CONTINUE SPEECH 0.0000
-0.3010 DOWN </s> -0.3010
-0.3010 DUSTBIN </s> -0.3010
-0.3010 FASTER </s> -0.3010
-0.3010 FORWARD </s> -0.3010
-0.3010 FREEZE </s> -0.3010
-0.3010 FULL SPEED -0.0969
-1.3010 GO BACK 0.0000
-1.3010 GO BACKWARD 0.0000
-1.3010 GO FORWARD 0.0000
-1.3010 GO LEFT 0.0000
-1.3010 GO RIGHT 0.0000
-1.3010 GO STRAIGHT 0.0000
-0.6990 GO TO 0.0000
-0.3010 HALF SPEED -0.0969
-0.3010 HALT </s> -0.3010
-0.6021 HELP </s> -0.3010
-0.6021 HELP ME 0.0000
-0.3010 HOME </s> -0.3010
-0.3010 KILL </s> -0.3010
-0.3010 LEFT </s> -0.3010
-0.3010 ME </s> -0.3010
-1.0000 MOVE BACK 0.0000
-1.0000 MOVE BACKWARD 0.0000
-1.0000 MOVE FORWARD 0.0000
-1.0000 MOVE LEFT 0.0000
-1.0000 MOVE RIGHT 0.0000
-0.3010 NOW </s> -0.3010
-0.3010 OFF </s> -0.3010
-0.3010 PANIC </s> -0.3010
-0.3010 PAUSE SPEECH 0.0000
-0.3010 QUARTER SPEED -0.0969
-0.3010 RESTROOM </s> -0.3010
-0.3010 RIGHT </s> -0.3010
-0.6021 ROTATE LEFT 0.0000
-0.6021 ROTATE RIGHT 0.0000
-0.3010 SHUT DOWN 0.0000
-0.3010 SLOW DOWN 0.0000
-0.3010 SLOWER </s> -0.3010
-0.3010 SPEECH </s> -0.3010
-0.4260 SPEED </s> -0.3010
-0.9031 SPEED UP 0.0000
-0.6021 STOP </s> -0.3010
-0.6021 STOP NOW 0.0000
-0.3010 STRAIGHT </s> -0.3010
-0.9031 TO BENCH 0.0000
-0.9031 TO DUSTBIN 0.0000
-0.9031 TO HOME 0.0000
-0.9031 TO RESTROOM 0.0000
-0.7782 TURN LEFT 0.0000
-0.7782 TURN OFF 0.0000
-0.7782 TURN RIGHT 0.0000
-0.3010 UP </s> -0.3010

\3-grams:
-0.3010 <s> ABORT </s>
-0.3010 <s> BENCH </s>
-0.3010 <s> CANCEL </s>
-0.9031 <s> COME BACKWARD
-0.9031 <s> COME FORWARD
-0.9031 <s> COME LEFT
-0.9031 <s> COME RIGHT
-0.3010 <s> CONTINUE SPEECH
-0.3010 <s> DUSTBIN </s>
-0.3010 <s> FASTER </s>
-0.3010 <s> FREEZE </s>
-0.3010 <s> FULL SPEED
-1.3010 <s> GO BACK
-1.3010 <s> GO BACKWARD
-1.3010 <s> GO FORWARD
-1.3010 <s> GO LEFT
-1.3010 <s> GO RIGHT
-1.3010 <s> GO STRAIGHT
-0.6990 <s> GO TO
-0.3010 <s> HALF SPEED
-0.3010 <s> HALT </s>
-0.6021 <s> HELP </s>
-0.6021 <s> HELP ME
-0.3010 <s> HOME </s>
-0.3010 <s> KILL </s>
-1.0000 <s> MOVE BACK
-1.0000 <s> MOVE BACKWARD
-1.0000 <s> MOVE FORWARD
-1.0000 <s> MOVE LEFT
-1.0000 <s> MOVE RIGHT
-0.3010 <s> PANIC </s>
-0.3010 <s> PAUSE SPEECH
-0.3010 <s> QUARTER SPEED
-0.3010 <s> RESTROOM </s>
-0.6021 <s> ROTATE LEFT
-0.6021 <s> ROTATE RIGHT
-0.3010 <s> SHUT DOWN
-0.3010 <s> SLOW DOWN
-0.3010 <s> SLOWER </s>
-0.3010 <s> SPEED UP
-0.6021 <s> STOP </s>
-0.6021 <s> STOP NOW
-0.7782 <s> TURN LEFT
-0.7782 <s> TURN OFF
-0.7782 <s> TURN RIGHT
-0.3010 COME BACKWARD </s>
-0.3010 COME FORWARD </s>
-0.3010 COME LEFT </s>
-0.3010 COME RIGHT </s>
-0.3010 CONTINUE SPEECH </s>
-0.3010 FULL SPEED </s>
-0.3010 GO BACK </s>
-0.3010 GO BACKWARD </s>
-0.3010 GO FORWARD </s>
-0.3010 GO LEFT </s>
-0.3010 GO RIGHT </s>
-0.3010 GO STRAIGHT </s>
-0.9031 GO TO BENCH
-0.9031 GO TO DUSTBIN
-0.9031 GO TO HOME
-0.9031 GO TO RESTROOM
-0.3010 HALF SPEED </s>
-0.3010 HELP ME </s>
-0.3010 MOVE BACK </s>
-0.3010 MOVE BACKWARD </s>
-0.3010 MOVE FORWARD </s>
-0.3010 MOVE LEFT </s>
-0.3010 MOVE RIGHT </s>
-0.3010 PAUSE SPEECH </s>
-0.3010 QUARTER SPEED </s>
-0.3010 ROTATE LEFT </s>
-0.3010 ROTATE RIGHT </s>
-0.3010 SHUT DOWN </s>
-0.3010 SLOW DOWN </s>
-0.3010 SPEED UP </s>
-0.3010 STOP NOW </s>
-0.3010 TO BENCH </s>
-0.3010 TO DUSTBIN </s>
-0.3010 TO HOME </s>
-0.3010 TO RESTROOM </s>
-0.3010 TURN LEFT </s>
-0.3010 TURN OFF </s>
-0.3010 TURN RIGHT </s>

\end\
